1.000000000000000000e+00 1.260978101527143735e-04
2.000000000000000000e+00 -2.066524591138829692e-02
3.000000000000000000e+00 -1.367980343363939255e-02
4.000000000000000000e+00 -1.649694943250779033e-02
5.000000000000000000e+00 8.683963046323128765e-04
6.000000000000000000e+00 4.233955715484682969e-03
7.000000000000000000e+00 -1.769863239289293233e-04
8.000000000000000000e+00 2.098567479578150596e-03
9.000000000000000000e+00 1.743375256644696947e-03
1.000000000000000000e+01 7.437516568913338233e-04
1.100000000000000000e+01 8.957819226232288656e-03
1.200000000000000000e+01 4.623246112664958218e-03
1.300000000000000000e+01 5.816957672813316549e-03
1.400000000000000000e+01 2.822665314546668469e-03
1.500000000000000000e+01 -2.681857213630678416e-03
1.600000000000000000e+01 4.660977519947095971e-03
1.700000000000000000e+01 4.006395208364210703e-03
1.800000000000000000e+01 3.971594785895149471e-03
1.900000000000000000e+01 5.601052545884499523e-03
2.000000000000000000e+01 3.717157548303617887e-02
2.100000000000000000e+01 1.573935421144057045e-02
2.200000000000000000e+01 1.239047140975202410e-02
2.300000000000000000e+01 -8.093948325907263097e-03
2.400000000000000000e+01 -1.570786152252168222e-02
2.500000000000000000e+01 1.592309450777662505e-02
2.600000000000000000e+01 1.598901080595283020e-02
2.700000000000000000e+01 1.133546870208590462e-02
2.800000000000000000e+01 -2.709990532608230751e-03
2.900000000000000000e+01 1.177955252496332150e-02
3.000000000000000000e+01 2.566701317014263850e-02
3.100000000000000000e+01 3.675936044977845540e-03
3.200000000000000000e+01 -3.804908528983474980e-02
3.300000000000000000e+01 -7.927070405751379667e-02
3.400000000000000000e+01 4.489586411659018950e-02
3.500000000000000000e+01 2.623924951578260334e-03
3.600000000000000000e+01 1.801628959967160881e-03
3.700000000000000000e+01 2.362937065953474303e-02
3.800000000000000000e+01 -4.964067636102242886e-03
3.900000000000000000e+01 2.797808723695993649e-02
4.000000000000000000e+01 9.616790794716223445e-03
4.100000000000000000e+01 7.325945088993535137e-03
4.200000000000000000e+01 1.291540426068138459e-02
4.300000000000000000e+01 -8.380644774234013994e-02
4.400000000000000000e+01 -5.363408147961479244e-02
4.500000000000000000e+01 -9.548213827902429784e-02
4.600000000000000000e+01 -9.475545673237917299e-02
4.700000000000000000e+01 -8.910941245211745354e-03
4.800000000000000000e+01 -3.789594651003369563e-02
4.900000000000000000e+01 3.345499160585063692e-02
5.000000000000000000e+01 2.208475075327953618e-03
5.100000000000000000e+01 -3.171031182660755121e-02
5.200000000000000000e+01 1.782334386255968184e-02
5.300000000000000000e+01 -1.536275014962740215e-02
5.400000000000000000e+01 1.178944054193920010e-02
5.500000000000000000e+01 3.596489316969098127e-03
5.600000000000000000e+01 1.041237488712454251e-02
5.700000000000000000e+01 5.471284790559138855e-03
5.800000000000000000e+01 1.504909296826184573e-02
5.900000000000000000e+01 -5.144799291365131921e-03
6.000000000000000000e+01 -1.073022524018796275e-02
6.100000000000000000e+01 4.382864207331493844e-02
6.200000000000000000e+01 -8.674126469450982313e-03
6.300000000000000000e+01 -5.926254581432033319e-03
6.400000000000000000e+01 3.770236875197952031e-03
6.500000000000000000e+01 -4.475993106929365695e-03
6.600000000000000000e+01 3.227249255374431414e-03
6.700000000000000000e+01 6.223196806971031947e-03
6.800000000000000000e+01 -7.393846363470402139e-04
6.900000000000000000e+01 -5.173888960584349661e-02
7.000000000000000000e+01 -2.868195220884217633e-04
7.100000000000000000e+01 -5.058068405361382247e-03
7.200000000000000000e+01 -7.795869776998642919e-03
7.300000000000000000e+01 -4.582207670971172320e-03
7.400000000000000000e+01 -2.591157202189720010e-03
7.500000000000000000e+01 -3.521089057755943941e-03
7.600000000000000000e+01 -5.425720054510918544e-03
7.700000000000000000e+01 -7.925904870603517338e-03
7.800000000000000000e+01 -2.992659537937925052e-03
7.900000000000000000e+01 -3.807512506185162238e-03
8.000000000000000000e+01 -1.712423963211051614e-02
8.100000000000000000e+01 -1.785156725662773169e-02
8.200000000000000000e+01 -3.994425735053397375e-02
8.300000000000000000e+01 -3.720820237988675672e-02
8.400000000000000000e+01 -9.864895789939254200e-02
8.500000000000000000e+01 2.191699653079126620e-02
8.600000000000000000e+01 -3.587011807458395651e-02
8.700000000000000000e+01 8.398478819664489947e-03
8.800000000000000000e+01 3.674694521789945156e-02
8.900000000000000000e+01 -2.738037619933919586e-02
9.000000000000000000e+01 -3.498547166046250823e-03
9.100000000000000000e+01 -3.798759796409001410e-02
9.200000000000000000e+01 -4.893354299911578664e-02
9.300000000000000000e+01 -1.375228409773541216e-01
9.400000000000000000e+01 8.174413362965537999e-02
9.500000000000000000e+01 -1.387999284600880401e-01
9.600000000000000000e+01 1.159317765941096923e-01
9.700000000000000000e+01 1.242604316580298018e-03
9.800000000000000000e+01 -1.733866122498284312e-02
9.900000000000000000e+01 3.703618049009094193e-03
1.000000000000000000e+02 1.258476779405270918e-03
1.010000000000000000e+02 3.418970257627051978e-03
1.020000000000000000e+02 1.271626003609327427e-02
1.030000000000000000e+02 3.079716182114111689e-03
1.040000000000000000e+02 1.617948735933794069e-03
1.050000000000000000e+02 1.649039474308011677e-02
1.060000000000000000e+02 -3.607684821687939802e-03
1.070000000000000000e+02 1.131842533392557471e-02
1.080000000000000000e+02 -1.243332397536534017e-02
1.090000000000000000e+02 -2.526708649128295292e-03
1.100000000000000000e+02 5.652296611160068096e-03
1.110000000000000000e+02 -6.115007186075160917e-03
1.120000000000000000e+02 6.204093198363125339e-04
1.130000000000000000e+02 -1.916411683168917079e-03
1.140000000000000000e+02 6.121848813208430329e-03
1.150000000000000000e+02 -3.587431808171004377e-03
1.160000000000000000e+02 -4.071306330887125569e-02
1.170000000000000000e+02 1.075279070556689476e-02
1.180000000000000000e+02 3.915385527210446526e-02
1.190000000000000000e+02 -6.329723841325574085e-02
1.200000000000000000e+02 -3.592048448709306285e-03
1.210000000000000000e+02 -1.783686160899833339e-02
1.220000000000000000e+02 -5.104535640491292270e-02
1.230000000000000000e+02 4.921545107210789638e-02
1.240000000000000000e+02 4.386647407081056826e-03
1.250000000000000000e+02 -3.179904057883931046e-02
1.260000000000000000e+02 -8.313292145992079440e-02
1.270000000000000000e+02 6.723553630827439065e-03
1.280000000000000000e+02 2.680650699356590394e-02
1.290000000000000000e+02 4.099142286776924493e-02
1.300000000000000000e+02 -2.099833833394626481e-02
1.310000000000000000e+02 1.401096417895075774e-02
1.320000000000000000e+02 -4.035374110491574129e-02
1.330000000000000000e+02 2.268928490444466206e-03
1.340000000000000000e+02 1.979568325083391755e-03
1.350000000000000000e+02 1.305779678133944799e-02
1.360000000000000000e+02 9.782054760151481787e-03
1.370000000000000000e+02 -4.211052204652077080e-02
1.380000000000000000e+02 6.936178485849353592e-02
1.390000000000000000e+02 -2.905123201017545398e-03
1.400000000000000000e+02 -4.144588258867543118e-04
1.410000000000000000e+02 1.111143253737623127e-02
1.420000000000000000e+02 -1.124971327193691195e-02
1.430000000000000000e+02 8.485126759026684340e-03
1.440000000000000000e+02 2.701955529488486718e-02
1.450000000000000000e+02 7.905707630584402068e-05
1.460000000000000000e+02 3.031252954749419359e-02
1.470000000000000000e+02 7.857083964263011922e-02
1.480000000000000000e+02 6.959887547786536288e-03
1.490000000000000000e+02 -5.731591153254811388e-02
1.500000000000000000e+02 -7.796352911881854197e-04
1.510000000000000000e+02 6.223494555655406657e-03
1.520000000000000000e+02 -2.033217113129381914e-02
1.530000000000000000e+02 -1.414200590971859128e-03
1.540000000000000000e+02 -3.980464347350221033e-03
1.550000000000000000e+02 9.269143998835716047e-04
1.560000000000000000e+02 6.578941083205336327e-03
1.570000000000000000e+02 -4.948093943152542806e-02
1.580000000000000000e+02 -9.872488690405134548e-03
1.590000000000000000e+02 2.792884616386714924e-02
1.600000000000000000e+02 -3.193566545967030379e-03
1.610000000000000000e+02 1.695457838296476893e-02
1.620000000000000000e+02 1.321263886433854395e-02
1.630000000000000000e+02 3.411939046441858636e-02
1.640000000000000000e+02 2.599253693074388138e-02
1.650000000000000000e+02 6.007458318020297838e-02
1.660000000000000000e+02 -7.639376741555992112e-02
1.670000000000000000e+02 -3.798433018118885229e-03
1.680000000000000000e+02 3.022826033069492269e-02
1.690000000000000000e+02 3.640904164841174406e-02
1.700000000000000000e+02 -7.315884524430771307e-03
1.710000000000000000e+02 -6.332409377172609766e-03
1.720000000000000000e+02 2.958541866703967571e-03
1.730000000000000000e+02 7.150734282255655216e-03
1.740000000000000000e+02 4.391336997585426616e-03
1.750000000000000000e+02 -1.404895971555930601e-02
1.760000000000000000e+02 -6.306023998362775274e-03
1.770000000000000000e+02 3.081076945165506231e-02
1.780000000000000000e+02 -6.879455857557559284e-03
1.790000000000000000e+02 -1.768823462883517550e-02
1.800000000000000000e+02 -2.383444425159808588e-02
1.810000000000000000e+02 6.701626950203376509e-03
1.820000000000000000e+02 1.296090776256164645e-02
1.830000000000000000e+02 4.271331758836538484e-02
1.840000000000000000e+02 1.501774133905087183e-02
1.850000000000000000e+02 -1.624502288346718615e-02
1.860000000000000000e+02 6.298039989844284037e-02
1.870000000000000000e+02 -1.653924363317571533e-03
1.880000000000000000e+02 2.596014840879945496e-02
1.890000000000000000e+02 -3.988710198271405716e-03
1.900000000000000000e+02 2.319600739829752456e-02
1.910000000000000000e+02 -1.275794040310529454e-03
1.920000000000000000e+02 -1.987839469076391197e-02
1.930000000000000000e+02 1.956115442299477536e-02
1.940000000000000000e+02 3.848930475314205069e-04
1.950000000000000000e+02 4.505489381386951209e-02
1.960000000000000000e+02 8.133181882776341354e-03
1.970000000000000000e+02 2.350544653225483671e-03
1.980000000000000000e+02 3.374732870219787628e-02
1.990000000000000000e+02 1.088505518469560229e-01
2.000000000000000000e+02 -2.368730394503870684e-02
2.010000000000000000e+02 9.506949461091096509e-03
2.020000000000000000e+02 2.929768431591384115e-02
2.030000000000000000e+02 -2.734554176581127649e-02
2.040000000000000000e+02 1.663349357922783156e-02
2.050000000000000000e+02 1.257916832172867316e-02
2.060000000000000000e+02 3.430278061095748399e-03
2.070000000000000000e+02 -1.488842710961790772e-02
2.080000000000000000e+02 -3.660668872598193957e-02
2.090000000000000000e+02 -2.605780320521375870e-01
2.100000000000000000e+02 -7.202143603660005056e-02
2.110000000000000000e+02 9.851616604382229525e-02
2.120000000000000000e+02 3.787088445604069875e-02
2.130000000000000000e+02 -6.482301363104170377e-02
2.140000000000000000e+02 1.106068119700722718e-01
2.150000000000000000e+02 -3.390100876103474548e-03
2.160000000000000000e+02 8.387839410438857612e-03
2.170000000000000000e+02 1.311972664860263649e-01
2.180000000000000000e+02 -1.850413822241137041e-02
2.190000000000000000e+02 -9.316822788996148574e-03
2.200000000000000000e+02 7.999547115339566972e-03
2.210000000000000000e+02 -1.964427089586706643e-02
2.220000000000000000e+02 -5.685180231608910617e-03
2.230000000000000000e+02 -3.905547661688046901e-03
2.240000000000000000e+02 8.691011984723218120e-03
2.250000000000000000e+02 -9.858557548412250071e-04
2.260000000000000000e+02 -9.847703591113088351e-03
2.270000000000000000e+02 2.777480444649427227e-03
2.280000000000000000e+02 1.158625940642821206e-02
2.290000000000000000e+02 6.403855925405821381e-03
2.300000000000000000e+02 -1.085735524757325265e-02
2.310000000000000000e+02 -1.247869471312412770e-02
2.320000000000000000e+02 -6.891465642596017460e-03
2.330000000000000000e+02 7.649378818349816811e-03
2.340000000000000000e+02 -6.367831122986444825e-04
2.350000000000000000e+02 2.990488019889880889e-03
2.360000000000000000e+02 6.734168503392368166e-03
2.370000000000000000e+02 -2.142367811075018835e-02
2.380000000000000000e+02 7.120633208316462515e-03
2.390000000000000000e+02 1.013830969814932814e-02
2.400000000000000000e+02 1.390072830815825000e-04
2.410000000000000000e+02 -1.352113527953235916e-02
2.420000000000000000e+02 3.086691893514625917e-04
2.430000000000000000e+02 -6.081248851842246950e-03
2.440000000000000000e+02 -3.831748182133765113e-02
2.450000000000000000e+02 -3.064533438120520259e-02
2.460000000000000000e+02 -1.602767492214240974e-02
2.470000000000000000e+02 3.566772647351967862e-02
2.480000000000000000e+02 -2.073974566377501105e-02
2.490000000000000000e+02 -8.938595969155471721e-03
2.500000000000000000e+02 3.616686008854230749e-03
2.510000000000000000e+02 -7.806793807155543163e-03
2.520000000000000000e+02 1.074678529996475618e-02
2.530000000000000000e+02 -2.907961862256058794e-03
2.540000000000000000e+02 -1.030563539153206420e-03
2.550000000000000000e+02 -1.174861734394028190e-02
2.560000000000000000e+02 8.945694506600432305e-03
2.570000000000000000e+02 -3.307408752944951402e-02
2.580000000000000000e+02 -1.228809548823051045e-02
2.590000000000000000e+02 -6.934394821065836823e-03
2.600000000000000000e+02 -7.512759020393389164e-03
2.610000000000000000e+02 -1.870771536445658967e-03
2.620000000000000000e+02 2.452692686201629613e-02
2.630000000000000000e+02 7.665102698204862008e-03
2.640000000000000000e+02 1.951501778071218496e-02
2.650000000000000000e+02 -2.986481367380378060e-02
2.660000000000000000e+02 -5.316021173924667664e-02
2.670000000000000000e+02 2.239172142979128921e-02
2.680000000000000000e+02 -4.497040777128802347e-02
2.690000000000000000e+02 1.232940192859643957e-02
2.700000000000000000e+02 -5.374926508059019170e-02
2.710000000000000000e+02 -9.550129646626714930e-03
2.720000000000000000e+02 2.916869226694984718e-03
2.730000000000000000e+02 -5.434331407982995188e-04
2.740000000000000000e+02 3.290506558023764683e-03
2.750000000000000000e+02 9.191424478032672596e-03
2.760000000000000000e+02 1.763720622275144478e-02
2.770000000000000000e+02 1.183553952763816142e-03
2.780000000000000000e+02 2.030551806697644679e-03
2.790000000000000000e+02 -7.320891819482255869e-03
2.800000000000000000e+02 -9.774459418522951637e-03
2.810000000000000000e+02 -2.809381337043248550e-02
2.820000000000000000e+02 3.746689285911486422e-02
2.830000000000000000e+02 5.985290568197854100e-03
2.840000000000000000e+02 4.919702872554410078e-02
2.850000000000000000e+02 -2.704044240736180882e-02
2.860000000000000000e+02 4.841891428164046829e-03
2.870000000000000000e+02 -3.825615228775802734e-02
2.880000000000000000e+02 3.083431451646845289e-02
2.890000000000000000e+02 1.046882982033991993e-02
2.900000000000000000e+02 2.362514942926452477e-02
2.910000000000000000e+02 5.227933136587381568e-02
2.920000000000000000e+02 -7.444823809848344354e-03
2.930000000000000000e+02 -2.589103331708031419e-03
2.940000000000000000e+02 5.091940605375100404e-03
2.950000000000000000e+02 -2.684644684531178882e-02
2.960000000000000000e+02 -3.725898604373156786e-02
2.970000000000000000e+02 7.945261125821900805e-02
2.980000000000000000e+02 -9.249284768507948229e-03
2.990000000000000000e+02 2.915718300931047224e-02
3.000000000000000000e+02 2.895426375786769313e-03
3.010000000000000000e+02 -3.269997631790033665e-03
3.020000000000000000e+02 2.278911052139420690e-02
3.030000000000000000e+02 3.974623336671356810e-02
3.040000000000000000e+02 1.290829471089693925e-02
3.050000000000000000e+02 -2.493539411305079057e-02
3.060000000000000000e+02 4.602919078685374643e-02
3.070000000000000000e+02 -1.513995650358879175e-02
3.080000000000000000e+02 -3.647558816759755018e-02
3.090000000000000000e+02 2.937416708260798259e-02
3.100000000000000000e+02 9.056508742290247937e-03
3.110000000000000000e+02 -2.493010428054276417e-02
3.120000000000000000e+02 3.884116038852170050e-02
3.130000000000000000e+02 8.252332398356543308e-03
3.140000000000000000e+02 1.434949504454152702e-02
3.150000000000000000e+02 -5.450266208448795169e-03
3.160000000000000000e+02 2.113452977170027225e-03
3.170000000000000000e+02 -2.767074284556514385e-02
3.180000000000000000e+02 4.038936763014078224e-02
3.190000000000000000e+02 -1.586882754500607007e-02
3.200000000000000000e+02 4.687648641034058983e-02
3.210000000000000000e+02 1.497022850118412407e-02
3.220000000000000000e+02 1.238089048231216793e-02
3.230000000000000000e+02 4.051433828591655129e-02
3.240000000000000000e+02 2.530525080678103222e-02
3.250000000000000000e+02 -2.747933440491578949e-02
3.260000000000000000e+02 2.748928707316622422e-02
3.270000000000000000e+02 3.656421226522610368e-02
3.280000000000000000e+02 3.875164809940656596e-03
3.290000000000000000e+02 1.956719418707564273e-02
3.300000000000000000e+02 -5.094157300627699669e-02
3.310000000000000000e+02 1.140299223916940718e-02
3.320000000000000000e+02 1.664438310371707530e-02
3.330000000000000000e+02 3.147543528221774523e-02
3.340000000000000000e+02 -2.166390145955432445e-02
3.350000000000000000e+02 -2.710990369498489372e-02
3.360000000000000000e+02 4.719150218119949614e-02
3.370000000000000000e+02 -1.421398872111012679e-03
3.380000000000000000e+02 -1.101560545756541387e-02
3.390000000000000000e+02 -2.444254074787721720e-02
3.400000000000000000e+02 4.725555826643557111e-02
3.410000000000000000e+02 2.593264125184191471e-02
3.420000000000000000e+02 -2.667974184708299390e-02
3.430000000000000000e+02 -2.661522654037185021e-04
3.440000000000000000e+02 -2.663579049157505096e-02
3.450000000000000000e+02 2.085804832957194321e-02
3.460000000000000000e+02 -6.228315819399199427e-03
3.470000000000000000e+02 5.591485547220997887e-03
3.480000000000000000e+02 3.658143256040347069e-02
3.490000000000000000e+02 1.125865847794926822e-02
3.500000000000000000e+02 -1.797480165841136568e-02
3.510000000000000000e+02 -3.446837539460290145e-02
3.520000000000000000e+02 -1.546891068783651235e-02
3.530000000000000000e+02 1.128213764739172120e-02
3.540000000000000000e+02 1.998465924046399778e-02
3.550000000000000000e+02 5.550503696021280575e-03
3.560000000000000000e+02 -1.572459456340880024e-03
3.570000000000000000e+02 5.855729483073446318e-02
3.580000000000000000e+02 2.651779804188691969e-02
3.590000000000000000e+02 -5.131425918776244544e-03
3.600000000000000000e+02 8.012031268854968857e-02
3.610000000000000000e+02 3.104677216219187130e-02
3.620000000000000000e+02 7.898549086363004790e-03
3.630000000000000000e+02 2.850405204911510282e-02
3.640000000000000000e+02 -1.548940183816682747e-02
3.650000000000000000e+02 -1.120403050612139850e-02
3.660000000000000000e+02 4.291628565866290046e-03
3.670000000000000000e+02 1.918342180289300813e-03
3.680000000000000000e+02 1.884828583113318246e-02
3.690000000000000000e+02 -1.525226811750712841e-03
3.700000000000000000e+02 -1.036957638557822747e-02
3.710000000000000000e+02 -9.621558306470490152e-03
3.720000000000000000e+02 -2.046105331414338480e-02
3.730000000000000000e+02 4.453062629082182866e-03
3.740000000000000000e+02 8.571609943039959489e-03
3.750000000000000000e+02 1.201469073117067410e-02
3.760000000000000000e+02 -7.440771640666810072e-03
3.770000000000000000e+02 -7.888953769987949727e-02
3.780000000000000000e+02 2.226728677395328759e-02
3.790000000000000000e+02 1.599345468079604871e-04
3.800000000000000000e+02 4.205206216445134260e-02
3.810000000000000000e+02 9.859857050209086538e-03
3.820000000000000000e+02 6.704155312034743019e-02
3.830000000000000000e+02 3.202718700710249777e-02
3.840000000000000000e+02 -3.185240719789561581e-02
3.850000000000000000e+02 -5.660730658956936168e-02
3.860000000000000000e+02 1.207870844226022200e-03
3.870000000000000000e+02 1.224642124798691611e-02
3.880000000000000000e+02 -2.352777959472973635e-03
3.890000000000000000e+02 2.823613944968883516e-04
3.900000000000000000e+02 -1.758921491277476434e-02
3.910000000000000000e+02 -1.796601711303935645e-02
3.920000000000000000e+02 1.592431286482565156e-02
3.930000000000000000e+02 3.894903086276713111e-03
3.940000000000000000e+02 -8.645305226480104466e-03
3.950000000000000000e+02 -2.437351918835872766e-03
3.960000000000000000e+02 6.119085890077258227e-05
3.970000000000000000e+02 1.231591035286783153e-02
3.980000000000000000e+02 1.192712951834096202e-04
3.990000000000000000e+02 -1.859867398295023122e-03
4.000000000000000000e+02 -1.109881172715887487e-02
4.010000000000000000e+02 -4.589669571686272320e-05
4.020000000000000000e+02 -1.360465789780107571e-02
4.030000000000000000e+02 -7.874094263819131356e-03
4.040000000000000000e+02 -5.226815598064149526e-03
4.050000000000000000e+02 -4.249864792669200142e-03
4.060000000000000000e+02 2.883524969867323762e-03
4.070000000000000000e+02 7.881261270675565811e-03
4.080000000000000000e+02 8.019393752292103272e-04
4.090000000000000000e+02 -1.763678869920681791e-03
4.100000000000000000e+02 -6.388221897850598907e-04
4.110000000000000000e+02 -1.377940491216378405e-02
4.120000000000000000e+02 1.296957956299138459e-03
4.130000000000000000e+02 3.107367644481939806e-03
4.140000000000000000e+02 -1.676248296448079600e-03
4.150000000000000000e+02 8.881312746076730491e-03
4.160000000000000000e+02 1.709832675324207685e-03
4.170000000000000000e+02 2.542613581070440887e-02
4.180000000000000000e+02 8.172117553976221416e-02
4.190000000000000000e+02 2.027869919192681891e-02
4.200000000000000000e+02 -7.117608998619573413e-03
4.210000000000000000e+02 6.754456503905714726e-03
4.220000000000000000e+02 2.605006857045566449e-03
4.230000000000000000e+02 -1.215536893155899634e-02
4.240000000000000000e+02 2.393991526313499207e-02
4.250000000000000000e+02 2.124741206925051529e-02
4.260000000000000000e+02 6.672389389663635484e-03
4.270000000000000000e+02 1.851036592899646394e-02
4.280000000000000000e+02 -1.776848029301447696e-03
4.290000000000000000e+02 -1.020012097330180723e-02
4.300000000000000000e+02 -1.510497369189067740e-03
4.310000000000000000e+02 1.252910550852703864e-02
4.320000000000000000e+02 -1.251350772978554460e-02
4.330000000000000000e+02 1.631057493526100188e-02
4.340000000000000000e+02 4.347475787064070119e-03
4.350000000000000000e+02 2.873651843337654554e-03
4.360000000000000000e+02 2.591667539434183709e-03
4.370000000000000000e+02 -2.596994176386147046e-03
4.380000000000000000e+02 -4.145301322068917216e-03
4.390000000000000000e+02 4.924657179735447698e-03
4.400000000000000000e+02 2.482218146970183170e-02
4.410000000000000000e+02 -1.286740836005861865e-02
4.420000000000000000e+02 -3.750289047800947628e-03
4.430000000000000000e+02 -7.170668306670791026e-03
4.440000000000000000e+02 1.166571172674935042e-03
4.450000000000000000e+02 8.855911873041577564e-03
4.460000000000000000e+02 7.414474203812915221e-04
4.470000000000000000e+02 -3.668446241974265831e-03
4.480000000000000000e+02 2.444120188282283834e-02
4.490000000000000000e+02 2.722781724155964866e-02
4.500000000000000000e+02 -1.532120751483745380e-02
4.510000000000000000e+02 1.141435484697694847e-03
4.520000000000000000e+02 2.949456422789609178e-02
4.530000000000000000e+02 -4.901657514793100745e-03
4.540000000000000000e+02 1.081898810191006532e-02
4.550000000000000000e+02 4.844813649519608134e-03
4.560000000000000000e+02 -3.363303479114421179e-02
4.570000000000000000e+02 -6.528647539525422872e-04
4.580000000000000000e+02 1.415249034721455246e-03
4.590000000000000000e+02 2.475662983343340784e-04
4.600000000000000000e+02 -1.419390654260155316e-02
4.610000000000000000e+02 -1.061368633664017125e-02
4.620000000000000000e+02 1.718421343154830083e-02
4.630000000000000000e+02 9.418632311948726965e-03
4.640000000000000000e+02 6.375725295285405991e-03
